4 100
<PAD> -0.003486 0.004178 0.004953 -0.000435 -0.003880 -0.004907 0.004723 -0.002442 0.004204 -0.003422 -0.003605 -0.000254 0.001546 0.000739 -0.004185 -0.000381 -0.000188 0.001951 0.002176 -0.000391 -0.003045 0.000714 0.004320 0.001160 -0.003506 -0.001202 0.001169 0.001519 0.001391 0.003640 0.000644 -0.000796 0.003132 -0.001126 0.000270 -0.003883 -0.000225 -0.003459 0.001909 -0.003868 0.003593 -0.001552 0.002684 -0.004137 0.001939 0.000233 0.000809 -0.000131 0.002234 0.001847 -0.000698 0.004053 0.000618 0.004599 -0.002436 0.003413 0.000993 -0.000573 -0.004547 -0.004380 0.001256 0.001896 -0.000046 -0.002377 -0.000219 -0.000696 -0.000538 -0.002439 0.004120 -0.002434 0.002987 0.001882 -0.002114 -0.002542 -0.004000 -0.000769 0.003589 -0.000972 0.001752 0.000057 0.000775 0.002282 0.004147 0.001352 -0.001489 -0.004566 0.004319 0.000956 -0.003162 0.000294 0.000586 0.000506 0.001892 0.000287 -0.000390 0.004884 0.001008 -0.000968 -0.003088 -0.000605
<UNK> -0.003284 0.001914 -0.000710 -0.001735 -0.002123 -0.003447 -0.002405 -0.001483 -0.001150 0.004596 -0.003939 -0.004341 -0.002205 0.002295 0.001243 0.002947 0.003522 0.000544 0.004957 -0.004531 -0.004270 0.003949 0.002628 -0.003686 -0.004735 0.004155 -0.001001 0.002084 0.002479 0.003184 0.000813 0.002276 -0.004103 -0.000397 0.003757 -0.003510 0.000328 0.001681 0.000326 0.002249 -0.002757 0.001225 -0.002858 0.001896 -0.003010 -0.004675 -0.002284 -0.002593 0.004968 -0.002521 -0.001273 -0.003995 -0.001433 -0.000219 0.001946 0.000348 0.004568 0.000138 0.001330 -0.003182 -0.001880 -0.003391 0.002469 0.003140 -0.000033 -0.003654 0.001926 0.002814 0.002957 -0.004877 0.002792 -0.004646 -0.002168 -0.004195 0.002484 -0.001383 -0.004216 0.004501 -0.001548 -0.002067 0.001736 -0.000032 -0.003696 0.003001 -0.003384 -0.004493 0.000513 0.004775 -0.002386 0.003086 0.002481 -0.000351 0.002150 0.000575 0.000683 -0.003963 -0.003747 -0.003613 0.001114 0.002061
<GO> -0.001017 0.001934 -0.004854 0.000434 0.004763 -0.004698 0.001489 -0.001594 0.002928 -0.001898 0.003177 -0.000842 0.003714 0.003588 -0.001822 0.002012 -0.003889 0.001115 -0.002275 0.004716 0.000253 -0.002784 -0.001436 -0.003616 0.004535 0.001291 0.000231 -0.000489 0.004265 -0.003722 -0.002421 0.003756 0.002957 -0.000558 0.003914 -0.000797 0.000860 -0.004525 -0.002608 0.004940 0.004253 0.000610 -0.004611 -0.000633 0.004489 0.000916 -0.004924 0.004022 0.004356 -0.003448 -0.002060 0.001430 -0.003577 -0.004874 0.004094 -0.003234 0.001130 0.001279 0.000485 0.002160 0.001237 -0.002275 0.004867 0.000886 0.002167 0.003630 -0.002469 0.002588 0.001775 0.000206 -0.003017 0.003946 0.000659 0.003004 -0.001091 -0.003415 -0.002593 0.003057 0.001839 0.001737 -0.003473 0.000848 -0.001683 -0.004632 -0.003316 -0.004959 0.000252 -0.000370 -0.004523 0.000342 0.003384 0.003666 0.001280 -0.002603 0.001357 0.003301 -0.004668 -0.002683 -0.004146 0.001856
<EOS> 0.000442 0.004739 0.000975 -0.001653 -0.001432 -0.002206 0.004143 0.001760 0.001385 -0.003715 -0.002146 0.002296 -0.003841 0.003969 -0.003505 -0.001824 -0.002241 0.004013 -0.003586 -0.001921 0.002754 0.003886 -0.001655 -0.002167 0.000995 -0.000389 0.001244 -0.003376 -0.002422 0.003406 0.004486 0.000139 0.003441 -0.000798 0.003428 0.002562 -0.004840 -0.003278 -0.003437 0.001569 -0.004521 0.000466 -0.002278 0.003012 -0.003415 -0.003139 0.000164 0.004739 -0.003870 0.004657 0.003170 -0.001236 -0.003709 0.000935 -0.000559 0.003419 0.002623 -0.002286 -0.003302 -0.003463 0.002885 0.003911 -0.002104 0.000267 0.002778 0.003749 -0.003314 -0.001538 -0.001989 0.001992 -0.003483 -0.004975 -0.004334 -0.003486 -0.004987 0.000475 0.003861 -0.002564 -0.002987 -0.002991 0.004709 -0.001744 0.000762 0.001140 0.004416 0.003452 -0.000100 -0.003999 -0.004023 -0.001272 -0.001827 0.004334 0.003312 -0.003315 -0.003629 -0.003498 -0.001747 0.004803 0.000136 -0.000442
